<?xml version="1.0"?>
<opencv_storage>
<cascade>
  <stageType>BOOST</stageType>
  <featureType>LBP</featureType>
  <height>20</height>
  <width>20</width>
  <stageParams>
    <boostType>GAB</boostType>
    <minHitRate>9.9500000476837158e-01</minHitRate>
    <maxFalseAlarm>5.0000000000000000e-01</maxFalseAlarm>
    <weightTrimRate>9.4999999999999996e-01</weightTrimRate>
    <maxDepth>1</maxDepth>
    <maxWeakCount>100</maxWeakCount></stageParams>
  <featureParams>
    <maxCatCount>256</maxCatCount>
    <featSize>1</featSize></featureParams>
  <stageNum>20</stageNum>
  <stages>
    <!-- stage 0 -->
    <_>
      <maxWeakCount>5</maxWeakCount>
      <stageThreshold>-2.9717913269996643e-01</stageThreshold>
      <weakClassifiers>
        <_>
          <internalNodes>
            0 -1 110 1359204490 -775696184 1367388834 -167799713
            -708591426 -1848793972 -241454081 -18945</internalNodes>
          <leafValues>
            -3.8434416055679321e-01 8.8886588811874390e-01</leafValues></_>
        <_>
          <internalNodes>
            0 -1 138 -237700656 -35812372 1297469904 -604029987
            -35782680 -1073889543 1069522413 -1073742097</internalNodes>
          <leafValues>
            -3.4672999382019043e-01 7.6674693822860718e-01</leafValues></_>
        <_>
          <internalNodes>
            0 -1 3 -2096963350 -607145894 -280955182 -3149101 251853315
            -1144285813 -893322287 -10229168</internalNodes>
          <leafValues>
            -5.4268348217010498e-01 5.4849612712860107e-01</leafValues></_>
        <_>
          <internalNodes>
            0 -1 126 -676605472 2141657281 -582493885 -1322303
            -1716790613 -1895831569 -48002341 -2108969</internalNodes>
          <leafValues>
            -4.6562990546226501e-01 6.0010558366775513e-01</leafValues></_>
        <_>
          <internalNodes>
            0 -1 88 -540022296 -988953216 1397834240 -137639449
            -1347561493 92313867 1235296681 1101785071</internalNodes>
          <leafValues>
            -7.1470671892166138e-01 3.8742047548294067e-01</leafValues></_></weakClassifiers></_>
    <!-- stage 1 -->
    <_>
      <maxWeakCount>7</maxWeakCount>
      <stageThreshold>-1.0719907283782959e+00</stageThreshold>
      <weakClassifiers>
        <_>
          <internalNodes>
            0 -1 110 -783683350 -779357462 -712511326 -705956353
            -35916305 -863177591 -772277253 -675285269</internalNodes>
          <leafValues>
            -2.5036495923995972e-01 8.3872950077056885e-01</leafValues></_>
        <_>
          <internalNodes>
            0 -1 16 859775935 1002384287 838795967 871834559 931084287
            1069496255 1073692607 -1084933379</internalNodes>
          <leafValues>
            -4.3346431851387024e-01 6.5160465240478516e-01</leafValues></_>
        <_>
          <internalNodes>
            0 -1 121 -22806624 1286585802 -677915183 -33565229
            -374080517 -2136747521 499586513 -570434209</internalNodes>
          <leafValues>
            -5.1621556282043457e-01 4.9258047342300415e-01</leafValues></_>
        <_>
          <internalNodes>
            0 -1 94 -787500597 -741928212 50528459 1474257224 -800080913
            84902606 68140027 1171096522</internalNodes>
          <leafValues>
            -5.5833077430725098e-01 4.4171014428138733e-01</leafValues></_>
        <_>
          <internalNodes>
            0 -1 19 -1012140053 -5245824 67499423 1442804181 -297014549
            -6322767 -1915765009 -2099741</internalNodes>
          <leafValues>
            -3.5593920946121216e-01 7.5098145008087158e-01</leafValues></_>
        <_>
          <internalNodes>
            0 -1 174 -208410208 -1334083279 -1723530495 1576522081
            -239367550 -89158750 -1286213071 -71304257</internalNodes>
          <leafValues>
            -5.1387315988540649e-01 4.6728268265724182e-01</leafValues></_>
        <_>
          <internalNodes>
            0 -1 5 -544934918 -88313346 -1588313100 1434755036 -93650974
            -609609830 2131231551 -425986</internalNodes>
          <leafValues>
            -5.1002752780914307e-01 4.3950149416923523e-01</leafValues></_></weakClassifiers></_>
    <!-- stage 2 -->
    <_>
      <maxWeakCount>7</maxWeakCount>
      <stageThreshold>-4.3194532394409180e-01</stageThreshold>
      <weakClassifiers>
        <_>
          <internalNodes>
            0 -1 130 -772804382 -1078987808 1465078082 1979148113
            1297516795 -2005410817 391189591 393697271</internalNodes>
          <leafValues>
            -2.8884559869766235e-01 7.7467215061187744e-01</leafValues></_>
        <_>
          <internalNodes>
            0 -1 10 -737870768 -771948550 -715851777 -572653569
            2034565119 -2097153 -35799041 -50177</internalNodes>
          <leafValues>
            -3.8226819038391113e-01 6.4519864320755005e-01</leafValues></_>
        <_>
          <internalNodes>
            0 -1 85 1361048043 -744752184 1346761137 1367864283
            1924914667 -775033868 778495 1171259306</internalNodes>
          <leafValues>
            -5.1301795244216919e-01 4.7799849510192871e-01</leafValues></_>
        <_>
          <internalNodes>
            0 -1 52 -41168470 -7347445 1903628785 -1180797 235917551
            1844247278 1077146087 -303041893</internalNodes>
          <leafValues>
            -4.5700883865356445e-01 5.1223087310791016e-01</leafValues></_>
        <_>
          <internalNodes>
            0 -1 22 -825241110 -439723263 -855485803 1296397317
            147389422 -901011142 1086392527 1162310631</internalNodes>
          <leafValues>
            -6.1011219024658203e-01 3.9062649011611938e-01</leafValues></_>
        <_>
          <internalNodes>
            0 -1 80 193182705 -1623721515 -677035023 -8973483 84897419
            -319030083 -1470395059 -722484867</internalNodes>
          <leafValues>
            -4.6050852537155151e-01 4.9162891507148743e-01</leafValues></_>
        <_>
          <internalNodes>
            0 -1 129 1942725346 1531703498 374599936 1476371431
            -1068006193 -720944243 1192431839 1465896459</internalNodes>
          <leafValues>
            -6.1052983999252319e-01 3.5843878984451294e-01</leafValues></_></weakClassifiers></_>
    <!-- stage 3 -->
    <_>
      <maxWeakCount>8</maxWeakCount>
      <stageThreshold>-7.6772016286849976e-01</stageThreshold>
      <weakClassifiers>
        <_>
          <internalNodes>
            0 -1 114 -244583774 -238050266 1092747298 1365505794
            1433394687 71357925 1432307455 1439688141</internalNodes>
          <leafValues>
            -4.9611854553222656e-01 7.4014258384704590e-01</leafValues></_>
        <_>
          <internalNodes>
            0 -1 25 536231930 -806158345 -327681 -4653217 1073249270
            -1280004 -5702401 -536814124</internalNodes>
          <leafValues>
            -4.7356387972831726e-01 5.6913840770721436e-01</leafValues></_>
        <_>
          <internalNodes>
            0 -1 165 -7350806 -341050453 -583253552 -788489 201837551
            -1968613397 1156268541 -855900961</internalNodes>
          <leafValues>
            -4.5019999146461487e-01 5.3587275743484497e-01</leafValues></_>
        <_>
          <internalNodes>
            0 -1 29 -217910462 -709372957 1095324999 1440053079
            -110047006 -1326637 -641314805 -539004545</internalNodes>
          <leafValues>
            -5.2356958389282227e-01 4.5168834924697876e-01</leafValues></_>
        <_>
          <internalNodes>
            0 -1 147 -570568200 1542398448 -419994383 -36363 1213190379
            -1962806399 1198461179 -134261001</internalNodes>
          <leafValues>
            -4.3332698941230774e-01 4.8645764589309692e-01</leafValues></_>
        <_>
          <internalNodes>
            0 -1 182 -103025792 -14031711 -1093463760 -11803 -338298387
            -1526108247 1553937388 -550544395</internalNodes>
          <leafValues>
            -4.9340125918388367e-01 4.2794787883758545e-01</leafValues></_>
        <_>
          <internalNodes>
            0 -1 83 -775687774 -958007864 -2127971137 -726679553
            -1044373366 -214303764 1093401087 -606076961</internalNodes>
          <leafValues>
            -4.3544664978981018e-01 4.8683866858482361e-01</leafValues></_>
        <_>
          <internalNodes>
            0 -1 34 -305138782 -137637373 -985434671 1977823493
            178291370 -1899775346 1763201467 25629067</internalNodes>
          <leafValues>
            -5.1656049489974976e-01 3.8186097145080566e-01</leafValues></_></weakClassifiers></_>
    <!-- stage 4 -->
    <_>
      <maxWeakCount>9</maxWeakCount>
      <stageThreshold>-1.1490941047668457e+00</stageThreshold>
      <weakClassifiers>
        <_>
          <internalNodes>
            0 -1 96 -240922462 -712772818 -721030149 -139992069
            -191961106 8970248 1158015915 1091564266</internalNodes>
          <leafValues>
            -2.2356215119361877e-01 7.7165508270263672e-01</leafValues></_>
        <_>
          <internalNodes>
            0 -1 82 -263851807 -756157953 -571522563 -8225 -1559723845
            -71388421 -1946484293 -1140909377</internalNodes>
          <leafValues>
            -2.9273030161857605e-01 6.5166705846786499e-01</leafValues></_>
        <_>
          <internalNodes>
            0 -1 170 -318898736 -1308653059 -1813411248 2013245797
            -1075467272 -1098271798 2075783285 -1077957897</internalNodes>
          <leafValues>
            -4.8744627833366394e-01 4.3852421641349792e-01</leafValues></_>
        <_>
          <internalNodes>
            0 -1 12 -829692702 -142167342 -2104898817 -946352025
            179305467 -536900887 -972558593 -540019729</internalNodes>
          <leafValues>
            -3.8728344440460205e-01 5.0923955440521240e-01</leafValues></_>
        <_>
          <internalNodes>
            0 -1 49 1292857578 -1349529950 -576368141 -135268521
            202293454 -1416630834 1074152885 -1886399005</internalNodes>
          <leafValues>
            -4.9882653355598450e-01 4.0334448218345642e-01</leafValues></_>
        <_>
          <internalNodes>
            0 -1 120 1406128618 1432195359 294801410 -681875509
            -921714689 -997954862 -740952081 1473772175</internalNodes>
          <leafValues>
            -5.7826381921768188e-01 3.3342659473419189e-01</leafValues></_>
        <_>
          <internalNodes>
            0 -1 177 318960555 1409503656 1571393747 1470583232
            -1727471363 -611591548 478880179 261030028</internalNodes>
          <leafValues>
            -5.3399813175201416e-01 3.4175702929496765e-01</leafValues></_>
        <_>
          <internalNodes>
            0 -1 88 -134753310 -171450454 -778877534 -148901425
            -1985038401 88735109 -2015625317 1171118767</internalNodes>
          <leafValues>
            -6.3954216241836548e-01 2.6782330870628357e-01</leafValues></_>
        <_>
          <internalNodes>
            0 -1 56 797702387 -1092111 -1792045839 -872547083 1327186923
            -133 -343029543 -335575868</internalNodes>
          <leafValues>
            -3.5874637961387634e-01 5.3776365518569946e-01</leafValues></_></weakClassifiers></_>
    <!-- stage 5 -->
    <_>
      <maxWeakCount>10</maxWeakCount>
      <stageThreshold>-5.5944317579269409e-01</stageThreshold>
      <weakClassifiers>
        <_>
          <internalNodes>
            0 -1 127 -1221856864 -1380976766 933753842 -268437517
            254803707 -1885340429 1731196923 -844108717</internalNodes>
          <leafValues>
            -6.5217390656471252e-02 7.9664176702499390e-01</leafValues></_>
        <_>
          <internalNodes>
            0 -1 71 805222388 2146942887 2080171998 2146213626 -2244706
            -134217762 -16990210 -55011136</internalNodes>
          <leafValues>
            -4.2790484428405762e-01 5.5385363101959229e-01</leafValues></_>
        <_>
          <internalNodes>
            0 -1 134 -142155522 -33714493 107249886 -8465572 -1347890
            285319388 1415526143 1433392351</internalNodes>
          <leafValues>
            -5.7933968305587769e-01 3.6568802595138550e-01</leafValues></_>
        <_>
          <internalNodes>
            0 -1 44 319754395 -1177027585 1602821583 1462720271
            -1156009001 -279581553 -100433985 -139496769</internalNodes>
          <leafValues>
            -4.5850214362144470e-01 4.4334259629249573e-01</leafValues></_>
        <_>
          <internalNodes>
            0 -1 32 -173018629 -40110655 1170335159 -571517483
            -1383304453 -1884618753 -855279141 -820390661</internalNodes>
          <leafValues>
            -3.0760210752487183e-01 6.0549962520599365e-01</leafValues></_>
        <_>
          <internalNodes>
            0 -1 164 -170142238 -943235861 -177245743 -1242187915
            -408171845 -1027211923 1106105079 -973342721</internalNodes>
          <leafValues>
            -4.1251066327095032e-01 4.4366127252578735e-01</leafValues></_>
        <_>
          <internalNodes>
            0 -1 7 -33816578 -539845986 1177870167 1495573696 -35836110
            -35685746 1968265015 -6326337</internalNodes>
          <leafValues>
            -4.2491534352302551e-01 4.3726134300231934e-01</leafValues></_>
        <_>
          <internalNodes>
            0 -1 144 -2046034486 -821042878 1448571154 -67644427
            1763162301 -890267151 2047688922 -319293740</internalNodes>
          <leafValues>
            -4.0951162576675415e-01 4.3146312236785889e-01</leafValues></_>
        <_>
          <internalNodes>
            0 -1 23 -9439238 -317752342 -781929487 -176339085 1362491327
            -829620245 620168951 -319850513</internalNodes>
          <leafValues>
            -3.9393937587738037e-01 4.7850388288497925e-01</leafValues></_>
        <_>
          <internalNodes>
            0 -1 65 -641613400 -576324128 1165048279 1968288113
            134781610 -544355589 1149870443 -738078397</internalNodes>
          <leafValues>
            -5.0501239299774170e-01 3.5041007399559021e-01</leafValues></_></weakClassifiers></_>
    <!-- stage 6 -->
    <_>
      <maxWeakCount>10</maxWeakCount>
      <stageThreshold>-1.0057110786437988e+00</stageThreshold>
      <weakClassifiers>
        <_>
          <internalNodes>
            0 -1 107 -1823801142 -781456434 -242224182 1609540345
            -813063222 1158262730 -72372033 2011165439</internalNodes>
          <leafValues>
            -2.3487737774848938e-01 7.4364745616912842e-01</leafValues></_>
        <_>
          <internalNodes>
            0 -1 175 -5250646 -286269014 -1822468799 -572697103
            237083903 145090029 100648439 1324349439</internalNodes>
          <leafValues>
            -4.0060082077980042e-01 5.0876897573471069e-01</leafValues></_>
        <_>
          <internalNodes>
            0 -1 42 333382367 -1612761131 -316848747 1435858005
            977146875 -3155025 2098053023 -44418</internalNodes>
          <leafValues>
            -4.4127526879310608e-01 4.5441943407058716e-01</leafValues></_>
        <_>
          <internalNodes>
            0 -1 99 1975776226 -39107794 1461141295 -143174657
            -594680578 -2069569330 1204137919 -437126401</internalNodes>
          <leafValues>
            -4.7226601839065552e-01 3.6770674586296082e-01</leafValues></_>
        <_>
          <internalNodes>
            0 -1 48 1326166242 -170462383 -544648745 -382635913
            -754193512 -4195880 151539866 1334792698</internalNodes>
          <leafValues>
            -5.1433557271957397e-01 3.2323229312896729e-01</leafValues></_>
        <_>
          <internalNodes>
            0 -1 115 535831548 2138320856 729320927 521170606 2075949983
            1839763098 -35062785 -1091530820</internalNodes>
          <leafValues>
            -5.2009826898574829e-01 3.1996926665306091e-01</leafValues></_>
        <_>
          <internalNodes>
            0 -1 66 2008019682 1800393482 1104417265 1372025297
            688256687 151778953 1690621919 1091564507</internalNodes>
          <leafValues>
            -5.5302953720092773e-01 2.7713695168495178e-01</leafValues></_>
        <_>
          <internalNodes>
            0 -1 159 -1823473976 -161688 268915215 1432191757 -347554227
            2065727712 1107476319 1375779374</internalNodes>
          <leafValues>
            -5.3091543912887573e-01 3.1690207123756409e-01</leafValues></_>
        <_>
          <internalNodes>
            0 -1 19 -292555781 1460381089 -857616769 1173815621
            -810835743 -174341253 1791671017 1464746491</internalNodes>
          <leafValues>
            -4.0887200832366943e-01 3.9257338643074036e-01</leafValues></_>
        <_>
          <internalNodes>
            0 -1 92 -326766464 -775933752 -1315834607 -170585711
            -276640597 -1557421152 -1255248 -1942739779</internalNodes>
          <leafValues>
            -4.9122890830039978e-01 3.4852221608161926e-01</leafValues></_></weakClassifiers></_>
    <!-- stage 7 -->
    <_>
      <maxWeakCount>11</maxWeakCount>
      <stageThreshold>-9.6017545461654663e-01</stageThreshold>
      <weakClassifiers>
        <_>
          <internalNodes>
            0 -1 118 -1910244445 262406122 -1347963401 -274225387
            79660987 100663295 92475799 99563281</internalNodes>
          <leafValues>
            -2.2095435857772827e-01 7.4971622228622437e-01</leafValues></_>
        <_>
          <internalNodes>
            0 -1 0 -292887830 -331798 -289477661 -327681 -872218794
            -268722903 -806423837 -34953</internalNodes>
          <leafValues>
            -4.0050509572029114e-01 5.1077324151992798e-01</leafValues></_>
        <_>
          <internalNodes>
            0 -1 131 719314923 -655294481 -537798845 -2185 14716126
            -894134414 928076627 -8915593</internalNodes>
          <leafValues>
            -4.1408830881118774e-01 4.6479567885398865e-01</leafValues></_>
        <_>
          <internalNodes>
            0 -1 181 -2096373334 -282343031 1125066017 -41945731
            252181499 251783329 96974773 1334836565</internalNodes>
          <leafValues>
            -5.4986888170242310e-01 3.2834428548812866e-01</leafValues></_>
        <_>
          <internalNodes>
            0 -1 84 2064374251 1561004984 1542545403 1600457463
            -2004761093 -1649706022 -2004090945 -538837009</internalNodes>
          <leafValues>
            -3.4160712361335754e-01 5.2061647176742554e-01</leafValues></_>
        <_>
          <internalNodes>
            0 -1 150 -6365733 -2000689429 -1007355965 -570426017
            201379578 -1203437675 106206963 -909392385</internalNodes>
          <leafValues>
            -3.6895146965980530e-01 4.6608075499534607e-01</leafValues></_>
        <_>
          <internalNodes>
            0 -1 171 -97526128 -4220721 1578572817 -741647861 -791696640
            -589321748 1644916497 -568345077</internalNodes>
          <leafValues>
            -4.2366451025009155e-01 3.8185679912567139e-01</leafValues></_>
        <_>
          <internalNodes>
            0 -1 22 -812646453 -36703359 -2023381993 2143765841
            1255976703 -1463078985 1221124751 1103624163</internalNodes>
          <leafValues>
            -4.0438210964202881e-01 3.9575937390327454e-01</leafValues></_>
        <_>
          <internalNodes>
            0 -1 75 263131055 114995063 945245015 801767199 1495344090
            2080257954 2011399663 1811696348</internalNodes>
          <leafValues>
            -5.8274441957473755e-01 2.7635246515274048e-01</leafValues></_>
        <_>
          <internalNodes>
            0 -1 60 176946163 -6377479 -1894779439 2009052885 2064616367
            -541135890 -1406693165 -640318250</internalNodes>
          <leafValues>
            -3.6167764663696289e-01 4.4918912649154663e-01</leafValues></_>
        <_>
          <internalNodes>
            0 -1 173 -71706133 -301217814 -237358495 -571477513
            1168969471 -1920607259 1168000471 -844114769</internalNodes>
          <leafValues>
            -3.3662220835685730e-01 4.5386338233947754e-01</leafValues></_></weakClassifiers></_>
    <!-- stage 8 -->
    <_>
      <maxWeakCount>11</maxWeakCount>
      <stageThreshold>-9.5199429988861084e-01</stageThreshold>
      <weakClassifiers>
        <_>
          <internalNodes>
            0 -1 122 -646450454 -1394348320 -247991264 -1461199149
            812976249 209583863 1146437873 -1059990153</internalNodes>
          <leafValues>
            -2.1620079874992371e-01 7.3313480615615845e-01</leafValues></_>
        <_>
          <internalNodes>
            0 -1 67 1527774700 1602745674 287964660 1965363346 -82838547
            -1148455126 1145503997 93053679</internalNodes>
          <leafValues>
            -4.8414164781570435e-01 4.3289878964424133e-01</leafValues></_>
        <_>
          <internalNodes>
            0 -1 163 -72355357 -276580981 -167775821 -138686031
            -1676953941 -1951712625 1627386623 -860113665</internalNodes>
          <leafValues>
            -3.3048653602600098e-01 5.4379254579544067e-01</leafValues></_>
        <_>
          <internalNodes>
            0 -1 139 -1381761029 -33693225 -986630401 -583585316
            -314853129 -1078069313 -293915969 -33538</internalNodes>
          <leafValues>
            -2.9119810461997986e-01 5.7561433315277100e-01</leafValues></_>
        <_>
          <internalNodes>
            0 -1 13 -993001494 -523241534 -823936484 752608914
            -2134127894 -151031150 -827336289 -278922633</internalNodes>
          <leafValues>
            -4.5284733176231384e-01 3.8387444615364075e-01</leafValues></_>
        <_>
          <internalNodes>
            0 -1 158 -709889568 799079298 -1523756702 -2660911 151764616
            -1894762060 631759087 -839123461</internalNodes>
          <leafValues>
            -4.5266118645668030e-01 3.6523085832595825e-01</leafValues></_>
        <_>
          <internalNodes>
            0 -1 46 1403777273 -577080879 -1737761035 -310815275
            -1615858563 -1079183401 -1476232966 -315793957</internalNodes>
          <leafValues>
            -3.4251150488853455e-01 5.0052064657211304e-01</leafValues></_>
        <_>
          <internalNodes>
            0 -1 146 536846312 1006342842 957362624 970930109
            -1179735056 -1433159458 -68358444 -1074020931</internalNodes>
          <leafValues>
            -5.0256836414337158e-01 3.3277764916419983e-01</leafValues></_>
        <_>
          <internalNodes>
            0 -1 76 -1060253461 -559416937 -702439989 -72906345
            -343108314 -1076445303 -477254077 866061487</internalNodes>
          <leafValues>
            -4.1371029615402222e-01 3.8804990053176880e-01</leafValues></_>
        <_>
          <internalNodes>
            0 -1 184 -804521542 -106179631 1192300753 2005379025
            -100484374 -5585478 752881833 -870593135</internalNodes>
          <leafValues>
            -3.9431998133659363e-01 4.0683257579803467e-01</leafValues></_>
        <_>
          <internalNodes>
            0 -1 86 -420751992 1485769601 822203313 1088409687
            1352190347 402727850 1316849870 1548213759</internalNodes>
          <leafValues>
            -5.1710438728332520e-01 3.3185705542564392e-01</leafValues></_></weakClassifiers></_>
    <!-- stage 9 -->
    <_>
      <maxWeakCount>12</maxWeakCount>
      <stageThreshold>-1.0544112920761108e+00</stageThreshold>
      <weakClassifiers>
        <_>
          <internalNodes>
            0 -1 132 -4378 -7905338 1183801938 -37773390 -708381452
            67413190 -1049575179 1413994183</internalNodes>
          <leafValues>
            -2.4302789568901062e-01 7.1548116207122803e-01</leafValues></_>
        <_>
          <internalNodes>
            0 -1 26 252695547 -546049165 454024533 -682135277 187615995
            -67127297 1330498558 -12587009</internalNodes>
          <leafValues>
            -2.2313337028026581e-01 6.0632234811782837e-01</leafValues></_>
        <_>
          <internalNodes>
            0 -1 149 -268508950 -4271926 -1001593089 -547776081
            -1001110323 1484836555 1114854655 1326650363</internalNodes>
          <leafValues>
            -5.2825814485549927e-01 3.3024829626083374e-01</leafValues></_>
        <_>
          <internalNodes>
            0 -1 104 1464792015 1562311118 -177603599 -772021786
            290011135 -168171525 469188603 -1946207241</internalNodes>
          <leafValues>
            -4.0675851702690125e-01 3.8829320669174194e-01</leafValues></_>
        <_>
          <internalNodes>
            0 -1 53 -1184798 -1383210993 1908146673 -453343 155500537
            253804239 1911583991 1293678015</internalNodes>
          <leafValues>
            -4.9746048450469971e-01 3.0645826458930969e-01</leafValues></_>
        <_>
          <internalNodes>
            0 -1 31 -542173957 -1377307677 -236112525 -167972685
            -919659333 -286281749 -330366733 -858786307</internalNodes>
          <leafValues>
            -3.7352016568183899e-01 4.2967283725738525e-01</leafValues></_>
        <_>
          <internalNodes>
            0 -1 116 694945756 899248887 -258198818 530420215 -51479042
            -74732722 -342179860 -1524576</internalNodes>
          <leafValues>
            -4.5803380012512207e-01 3.4501710534095764e-01</leafValues></_>
        <_>
          <internalNodes>
            0 -1 147 -37758469 1568631776 -369142285 -1078069259
            -1027081249 -16393469 1996439995 -1359027464</internalNodes>
          <leafValues>
            -2.9062747955322266e-01 5.1697891950607300e-01</leafValues></_>
        <_>
          <internalNodes>
            0 -1 35 -747638550 -276369937 -1244530893 -141074457
            -1924380002 -1379348241 1126519029 -979634221</internalNodes>
          <leafValues>
            -4.0960723161697388e-01 3.7719911336898804e-01</leafValues></_>
        <_>
          <internalNodes>
            0 -1 154 -4466229 -571885087 -995790477 -640311067
            -871389013 -275813073 1154433261 -1045572460</internalNodes>
          <leafValues>
            -3.4590798616409302e-01 4.5343241095542908e-01</leafValues></_>
        <_>
          <internalNodes>
            0 -1 183 -1054870605 -150209669 2000123221 2111795665
            -620500807 -5248217 470636649 1536119083</internalNodes>
          <leafValues>
            -3.2927629351615906e-01 4.4088107347488403e-01</leafValues></_>
        <_>
          <internalNodes>
            0 -1 109 -274467357 -289407053 -9978508 -47976767
            -2073563141 -1933672451 204954725 -1393343877</internalNodes>
          <leafValues>
            -3.5654050111770630e-01 4.0544494986534119e-01</leafValues></_></weakClassifiers></_>
    <!-- stage 10 -->
    <_>
      <maxWeakCount>13</maxWeakCount>
      <stageThreshold>-1.0645648241043091e+00</stageThreshold>
      <weakClassifiers>
        <_>
          <internalNodes>
            0 -1 126 1571508704 -873474079 526862659 -571622655
            -1985258001 -1409579009 -582690559 738103633</internalNodes>
          <leafValues>
            -1.0284886509180069e-01 7.3957234621047974e-01</leafValues></_>
        <_>
          <internalNodes>
            0 -1 17 1025454399 1040167923 1946117599 872371199 523056127
            -548014081 -2113537 -138971153</internalNodes>
          <leafValues>
            -3.2629767060279846e-01 5.0052005052566528e-01</leafValues></_>
        <_>
          <internalNodes>
            0 -1 165 -5243413 -340793365 -168562191 -33557001 93192191
            -894304261 100267511 -537920001</internalNodes>
          <leafValues>
            -2.8482770919799805e-01 5.2914822101593018e-01</leafValues></_>
        <_>
          <internalNodes>
            0 -1 52 1966060202 -1114768981 2113343697 -68420717
            202362108 -1882392438 1142904311 1307570675</internalNodes>
          <leafValues>
            -5.2115654945373535e-01 2.9608556628227234e-01</leafValues></_>
        <_>
          <internalNodes>
            0 -1 186 -640682223 -235145377 -721029259 -571343905
            -1156894189 -88084718 -751170543 -1706344653</internalNodes>
          <leafValues>
            -3.6521926522254944e-01 3.9959129691123962e-01</leafValues></_>
        <_>
          <internalNodes>
            0 -1 93 -301206646 -1123028728 2144310258 1901082049
            -588331093 -1348185214 -1635075125 -942710293</internalNodes>
          <leafValues>
            -4.1684499382972717e-01 3.5943430662155151e-01</leafValues></_>
        <_>
          <internalNodes>
            0 -1 41 -251407989 -1692566581 -51156024 1607157215
            -267855272 -69732865 -237449048 -539009856</internalNodes>
          <leafValues>
            -3.6354595422744751e-01 4.1947185993194580e-01</leafValues></_>
        <_>
          <internalNodes>
            0 -1 111 -1079509014 -863244827 1066925060 -5514796
            1090470835 -994591349 134444659 -2132282990</internalNodes>
          <leafValues>
            -4.5845317840576172e-01 3.0910637974739075e-01</leafValues></_>
        <_>
          <internalNodes>
            0 -1 20 -806363198 -842565679 1152940306 1173664080
            -924845382 -915676479 1082904686 349287063</internalNodes>
          <leafValues>
            -4.7868403792381287e-01 3.1209605932235718e-01</leafValues></_>
        <_>
          <internalNodes>
            0 -1 38 -1917908833 -414449643 1040104959 -794250227
            -1505296386 579212443 -18289925 -1348460124</internalNodes>
          <leafValues>
            -3.5709521174430847e-01 3.9401957392692566e-01</leafValues></_>
        <_>
          <internalNodes>
            0 -1 123 -683686458 -243466014 -236039609 -207809088
            -2017731585 1418241236 1194283871 1899709175</internalNodes>
          <leafValues>
            -5.1563727855682373e-01 2.8213700652122498e-01</leafValues></_>
        <_>
          <internalNodes>
            0 -1 36 -1074791954 -2056512086 1440471346 -241035850
            116246669 -1970371890 1625240059 1948193167</internalNodes>
          <leafValues>
            -4.9134573340415955e-01 2.8978964686393738e-01</leafValues></_>
        <_>
          <internalNodes>
            0 -1 18 -1853238030 -538716815 1170191871 632812788
            792854920 -1385474593 1234934555 -1986275109</internalNodes>
          <leafValues>
            -4.1955372691154480e-01 3.5032695531845093e-01</leafValues></_></weakClassifiers></_>
    <!-- stage 11 -->
    <_>
      <maxWeakCount>12</maxWeakCount>
      <stageThreshold>-5.5272328853607178e-01</stageThreshold>
      <weakClassifiers>
        <_>
          <internalNodes>
            0 -1 121 -424937504 -823132192 -715407 -320907803 70769881
            -989859841 1960146256 -838871585</internalNodes>
          <leafValues>
            -3.3407572656869888e-02 7.3866409063339233e-01</leafValues></_>
        <_>
          <internalNodes>
            0 -1 80 732150769 -168560651 -973623427 -705187371 790767611
            951877349 -581645301 -975186555</internalNodes>
          <leafValues>
            -2.9639741778373718e-01 5.2433091402053833e-01</leafValues></_>
        <_>
          <internalNodes>
            0 -1 162 -2119450373 -175652497 -978159759 1594054007
            -340006662 -353127697 -316705989 253959587</internalNodes>
          <leafValues>
            -4.1435545682907104e-01 3.7998476624488831e-01</leafValues></_>
        <_>
          <internalNodes>
            0 -1 8 2113829886 -2305121 1604114303 -4426532 1773698035
            -1079494417 -67440645 -1530863532</internalNodes>
          <leafValues>
            -4.8324429988861084e-01 3.2186126708984375e-01</leafValues></_>
        <_>
          <internalNodes>
            0 -1 105 -184289392 -1314143327 -930475861 -1040449637
            1037940137 -1088295360 -573596534 -712259424</internalNodes>
          <leafValues>
            -3.7269383668899536e-01 3.7258407473564148e-01</leafValues></_>
        <_>
          <internalNodes>
            0 -1 47 2131492091 -1049103 -1756892719 1065319413
            1309461243 -4285457 -534162187 -840044073</internalNodes>
          <leafValues>
            -3.4994128346443176e-01 4.4122701883316040e-01</leafValues></_>
        <_>
          <internalNodes>
            0 -1 33 -244345349 -1345847582 -713951823 -168429577
            1233080383 -1448288034 1861174459 -858789889</internalNodes>
          <leafValues>
            -2.8387245535850525e-01 4.9482324719429016e-01</leafValues></_>
        <_>
          <internalNodes>
            0 -1 1 -856756481 -285217153 -335737129 1879043327
            -808598669 -1396715529 -1920741773 -816318608</internalNodes>
          <leafValues>
            -3.2972192764282227e-01 4.5480975508689880e-01</leafValues></_>
        <_>
          <internalNodes>
            0 -1 179 -710958936 -307637848 357901089 -708996783
            215681209 252366510 26099861 83866875</internalNodes>
          <leafValues>
            -5.9106236696243286e-01 2.4916383624076843e-01</leafValues></_>
        <_>
          <internalNodes>
            0 -1 95 -15507486 1822350266 2108153172 -1084962439
            -837853217 -1080042689 -989872923 -1000113667</internalNodes>
          <leafValues>
            -4.0112933516502380e-01 3.6903730034828186e-01</leafValues></_>
        <_>
          <internalNodes>
            0 -1 125 -1862562877 -1181511741 737086253 2067414883
            1842854891 -1137328709 2072910269 -1079170305</internalNodes>
          <leafValues>
            -3.7141332030296326e-01 3.9671549201011658e-01</leafValues></_>
        <_>
          <internalNodes>
            0 -1 54 -638756884 -824546491 1541977508 -536922625
            1030879977 138995563 602222951 353440031</internalNodes>
          <leafValues>
            -5.4017049074172974e-01 2.6168510317802429e-01</leafValues></_></weakClassifiers></_>
    <!-- stage 12 -->
    <_>
      <maxWeakCount>13</maxWeakCount>
      <stageThreshold>-6.6684180498123169e-01</stageThreshold>
      <weakClassifiers>
        <_>
          <internalNodes>
            0 -1 90 1930121437 841933565 -213190658 -7201 322216096
            -227563089 -1374748520 -327518</internalNodes>
          <leafValues>
            1.8385213613510132e-01 8.0400574207305908e-01</leafValues></_>
        <_>
          <internalNodes>
            0 -1 112 1355021258 2004874155 1440616868 1968403919
            -406323201 1562199292 -235669505 -134218273</internalNodes>
          <leafValues>
            -3.8207963109016418e-01 4.5407038927078247e-01</leafValues></_>
        <_>
          <internalNodes>
            0 -1 124 -2099640312 -103282274 -1894296263 1600062748
            -329143489 -1108296964 -1376064260 -1346884352</internalNodes>
          <leafValues>
            -4.1994205117225647e-01 3.7196373939514160e-01</leafValues></_>
        <_>
          <internalNodes>
            0 -1 2 -320143638 -673646625 -959931717 -3214978 -54624470
            -540022901 -51446997 -16886985</internalNodes>
          <leafValues>
            -4.6565595269203186e-01 3.1944885849952698e-01</leafValues></_>
        <_>
          <internalNodes>
            0 -1 142 -789591813 522576737 -540317057 1127174983
            -1335140146 -1224152950 -73176100 1605200974</internalNodes>
          <leafValues>
            -4.0440079569816589e-01 3.7451440095901489e-01</leafValues></_>
        <_>
          <internalNodes>
            0 -1 23 2036201963 1332734915 1173120755 -3081 636878783
            218099324 1694066167 -33816597</internalNodes>
          <leafValues>
            -3.4225052595138550e-01 4.2020592093467712e-01</leafValues></_>
        <_>
          <internalNodes>
            0 -1 60 587987890 -9440271 -1895350287 -680135339 738847371
            -8721414 -853205687 -530955</internalNodes>
          <leafValues>
            -3.4324136376380920e-01 4.2125454545021057e-01</leafValues></_>
        <_>
          <internalNodes>
            0 -1 182 -10487872 -39260543 1899974966 -539102731
            -874529395 -1390092767 1909397503 -1613791778</internalNodes>
          <leafValues>
            -3.7530788779258728e-01 3.6811551451683044e-01</leafValues></_>
        <_>
          <internalNodes>
            0 -1 172 1563029986 -305184918 1431622129 1439804848
            1283995647 256390635 1101744127 1078711991</internalNodes>
          <leafValues>
            -4.9684306979179382e-01 2.8373676538467407e-01</leafValues></_>
        <_>
          <internalNodes>
            0 -1 73 -131566283 -260251713 221855742 -38518785
            -1975538004 -1347731473 -1466423170 -1359011857</internalNodes>
          <leafValues>
            -3.2140040397644043e-01 4.4730770587921143e-01</leafValues></_>
        <_>
          <internalNodes>
            0 -1 152 -1867777573 -584455487 -1023437897 -151652427
            1485029615 -540049429 -1649430017 -838871435</internalNodes>
          <leafValues>
            -2.4667102098464966e-01 5.6919401884078979e-01</leafValues></_>
        <_>
          <internalNodes>
            0 -1 21 -856686598 -844647608 1891972625 -707272717
            1244630248 -1894780706 -729471815 -439889153</internalNodes>
          <leafValues>
            -3.7676584720611572e-01 3.9590987563133240e-01</leafValues></_>
        <_>
          <internalNodes>
            0 -1 68 -542645270 -387504054 1370947953 -1308892765
            80595342 1325702154 15302962 1409922538</internalNodes>
          <leafValues>
            -5.4824912548065186e-01 2.7259311079978943e-01</leafValues></_></weakClassifiers></_>
    <!-- stage 13 -->
    <_>
      <maxWeakCount>13</maxWeakCount>
      <stageThreshold>-9.5521432161331177e-01</stageThreshold>
      <weakClassifiers>
        <_>
          <internalNodes>
            0 -1 57 168505584 2113393909 -778059299 -2049616428
            -11628152 -16929 -1183182184 501944479</internalNodes>
          <leafValues>
            -4.3678160756826401e-02 7.3559319972991943e-01</leafValues></_>
        <_>
          <internalNodes>
            0 -1 90 1931170269 1924031487 -187760706 -134220306
            1192862128 -1217465413 -15857512 -1140946790</internalNodes>
          <leafValues>
            -2.7646842598915100e-01 5.3904527425765991e-01</leafValues></_>
        <_>
          <internalNodes>
            0 -1 148 -1934885889 -1966166535 -850002925 -216705787
            -1942488846 -1367393677 -613305846 2134069371</internalNodes>
          <leafValues>
            -3.9549946784973145e-01 3.9269530773162842e-01</leafValues></_>
        <_>
          <internalNodes>
            0 -1 14 1727002602 -1966671006 -1798307166 -1598917086
            1081593981 -1133692817 1085758711 -16778241</internalNodes>
          <leafValues>
            -4.3981042504310608e-01 3.2151401042938232e-01</leafValues></_>
        <_>
          <internalNodes>
            0 -1 70 1810112703 2112176209 -1465868290 621052995
            1309884602 -642817797 -462850 -1377777438</internalNodes>
          <leafValues>
            -3.9830654859542847e-01 3.4004595875740051e-01</leafValues></_>
        <_>
          <internalNodes>
            0 -1 97 246414243 -15010893 -276832656 -277156879 1123006399
            -289430015 1803272051 -461897869</internalNodes>
          <leafValues>
            -3.5925307869911194e-01 3.6907947063446045e-01</leafValues></_>
        <_>
          <internalNodes>
            0 -1 106 -716197133 -183197182 -102603038 1938920096
            869183231 688539662 1123885295 1741330403</internalNodes>
          <leafValues>
            -4.1467127203941345e-01 3.3056652545928955e-01</leafValues></_>
        <_>
          <internalNodes>
            0 -1 161 -1354884963 -8640641 1073678686 -4453026 -68076103
            -180323 -1220874385 -1096245446</internalNodes>
          <leafValues>
            -2.8604766726493835e-01 4.4705131649971008e-01</leafValues></_>
        <_>
          <internalNodes>
            0 -1 62 -683279574 -544221753 -1314622753 -378154171
            1300992178 -1699508161 -890485598 -908043857</internalNodes>
          <leafValues>
            -3.5314321517944336e-01 3.6022385954856873e-01</leafValues></_>
        <_>
          <internalNodes>
            0 -1 185 -763101792 2009560482 1190753617 -707800173
            1332280961 76185763 1582716692 1223162847</internalNodes>
          <leafValues>
            -4.9755629897117615e-01 2.6440307497978210e-01</leafValues></_>
        <_>
          <internalNodes>
            0 -1 55 -201327663 -1677761071 -1694552163 -973842987
            2009032619 1744008189 922420137 -475617532</internalNodes>
          <leafValues>
            -3.2489657402038574e-01 4.2456522583961487e-01</leafValues></_>
        <_>
          <internalNodes>
            0 -1 98 1904669578 870543215 923091298 -473969155 -610141205
            71600622 1333874794 1187573928</internalNodes>
          <leafValues>
            -6.0939818620681763e-01 2.2291895747184753e-01</leafValues></_>
        <_>
          <internalNodes>
            0 -1 64 831251115 -208711037 287297911 1901023539 228298431
            -1489108807 1351570921 1566303435</internalNodes>
          <leafValues>
            -4.3659508228302002e-01 3.0716609954833984e-01</leafValues></_></weakClassifiers></_>
    <!-- stage 14 -->
    <_>
      <maxWeakCount>13</maxWeakCount>
      <stageThreshold>-5.0948232412338257e-01</stageThreshold>
      <weakClassifiers>
        <_>
          <internalNodes>
            0 -1 108 1104352234 1978889199 1171336232 -709787649
            -718851105 1572894700 -671088641 1574384631</internalNodes>
          <leafValues>
            -1.5544041059911251e-02 7.3998427391052246e-01</leafValues></_>
        <_>
          <internalNodes>
            0 -1 59 1346433247 860748797 1440597503 2147473407
            -2130468438 -161566788 593299483 -268488705</internalNodes>
          <leafValues>
            -2.4053633213043213e-01 5.4137277603149414e-01</leafValues></_>
        <_>
          <internalNodes>
            0 -1 155 489281962 2097405419 487980989 497389917 2019621104
            -355796021 -67071796 178995271</internalNodes>
          <leafValues>
            -4.8251509666442871e-01 2.9135897755622864e-01</leafValues></_>
        <_>
          <internalNodes>
            0 -1 32 -1045433365 -166443 -846367233 -308424235 802062335
            -136314889 -1346240513 197998047</internalNodes>
          <leafValues>
            -3.5246971249580383e-01 3.9255395531654358e-01</leafValues></_>
        <_>
          <internalNodes>
            0 -1 91 -398329376 -288105765 -1815498126 -117593125
            159452851 -1078127821 -343623014 -1145769281</internalNodes>
          <leafValues>
            -4.0309953689575195e-01 3.2836860418319702e-01</leafValues></_>
        <_>
          <internalNodes>
            0 -1 6 -186450266 -76874010 1886672116 1414573034 -711133593
            -1078255345 -173677803 -40541222</internalNodes>
          <leafValues>
            -5.7489025592803955e-01 1.9823551177978516e-01</leafValues></_>
        <_>
          <internalNodes>
            0 -1 78 -1078214663 1067127805 -2048810435 1825961461
            2065386313 1068455851 -48535012 -791952636</internalNodes>
          <leafValues>
            -3.5735452175140381e-01 3.6424478888511658e-01</leafValues></_>
        <_>
          <internalNodes>
            0 -1 173 1606108648 -301251734 863961568 -134262543 69878767
            209830127 1150813633 1152095671</internalNodes>
          <leafValues>
            -5.8607620000839233e-01 2.2075924277305603e-01</leafValues></_>
        <_>
          <internalNodes>
            0 -1 24 -396624146 1768483789 1971279667 -170561545
            1885949853 683736333 836838391 604316503</internalNodes>
          <leafValues>
            -5.3749233484268188e-01 2.2858443856239319e-01</leafValues></_>
        <_>
          <internalNodes>
            0 -1 141 -576979496 1533015753 -352098953 -145287986
            -1084142119 -400716323 755046553 -1465037665</internalNodes>
          <leafValues>
            -3.7167894840240479e-01 3.7903991341590881e-01</leafValues></_>
        <_>
          <internalNodes>
            0 -1 100 -175648530 -1691897585 1979712110 -135268387
            -736462593 -1719097105 1422096351 1372496891</internalNodes>
          <leafValues>
            -5.0528091192245483e-01 2.7953991293907166e-01</leafValues></_>
        <_>
          <internalNodes>
            0 -1 50 -540026387 -719864535 323747327 -169348414
            1489961198 -587909699 1577400831 -235111697</internalNodes>
          <leafValues>
            -2.9684904217720032e-01 4.5949706435203552e-01</leafValues></_>
        <_>
          <internalNodes>
            0 -1 72 2054618237 962084861 1027242888 -1339507265
            -1152971243 -314922800 -1174180280 -67409091</internalNodes>
          <leafValues>
            -3.1006264686584473e-01 4.2843043804168701e-01</leafValues></_></weakClassifiers></_>
    <!-- stage 15 -->
    <_>
      <maxWeakCount>13</maxWeakCount>
      <stageThreshold>-6.1718827486038208e-01</stageThreshold>
      <weakClassifiers>
        <_>
          <internalNodes>
            0 -1 87 1468527362 -508565630 1719083042 621116835
            -596771066 2158252 -454578513 3521895</internalNodes>
          <leafValues>
            -2.4270352721214294e-01 6.9798177480697632e-01</leafValues></_>
        <_>
          <internalNodes>
            0 -1 103 1130353647 1539224575 -656409650 -16778246
            1937139515 -1082195971 -268824593 -67159297</internalNodes>
          <leafValues>
            -2.6081082224845886e-01 5.3875917196273804e-01</leafValues></_>
        <_>
          <internalNodes>
            0 -1 156 -1927361544 -545330950 1359188659 457566927
            1410547951 -124894587 -253923077 -548717633</internalNodes>
          <leafValues>
            -3.6671224236488342e-01 3.7632071971893311e-01</leafValues></_>
        <_>
          <internalNodes>
            0 -1 45 -576072453 -170402463 -1163945739 821030389
            -274727941 -101346305 -829646689 -570432865</internalNodes>
          <leafValues>
            -2.2235742211341858e-01 6.1806935071945190e-01</leafValues></_>
        <_>
          <internalNodes>
            0 -1 168 -285225232 -1308646401 -2136932348 -1577139449
            -1092111028 -1916600021 -939065436 -1426084116</internalNodes>
          <leafValues>
            -5.0409460067749023e-01 2.7270570397377014e-01</leafValues></_>
        <_>
          <internalNodes>
            0 -1 37 1626851532 -84385938 -1793154526 -4585046 1464785661
            539116027 593482738 900405934</internalNodes>
          <leafValues>
            -5.2525824308395386e-01 2.6278069615364075e-01</leafValues></_>
        <_>
          <internalNodes>
            0 -1 135 -1661209642 -73856117 -272845561 565322787
            910777692 -1180091335 738145118 960446015</internalNodes>
          <leafValues>
            -4.4907388091087341e-01 3.0470904707908630e-01</leafValues></_>
        <_>
          <internalNodes>
            0 -1 61 1398092283 2069752285 -1126858817 1448998397
            -661866296 -1170361897 -1970311461 -1667940001</internalNodes>
          <leafValues>
            -3.2423189282417297e-01 4.2022445797920227e-01</leafValues></_>
        <_>
          <internalNodes>
            0 -1 180 -989618134 -552381017 1091782452 -686568979
            -1978619685 -1771968224 352972475 -617135101</internalNodes>
          <leafValues>
            -4.1129904985427856e-01 3.2582154870033264e-01</leafValues></_>
        <_>
          <internalNodes>
            0 -1 43 1338760155 -1699522159 1877958607 -915310783
            947847963 855419826 -276853848 -143683532</internalNodes>
          <leafValues>
            -3.1613805890083313e-01 4.2030641436576843e-01</leafValues></_>
        <_>
          <internalNodes>
            0 -1 119 18852834 1920794890 1083811880 1440478178 839462351
            218267791 1433502207 1173215149</internalNodes>
          <leafValues>
            -6.1301970481872559e-01 2.2046793997287750e-01</leafValues></_>
        <_>
          <internalNodes>
            0 -1 51 -674760706 -1225786954 1227190677 1940722484
            21258538 -503335982 -806338792 886109153</internalNodes>
          <leafValues>
            -4.6416249871253967e-01 2.7816084027290344e-01</leafValues></_>
        <_>
          <internalNodes>
            0 -1 164 -37792310 -855045789 668091808 1910076403
            1090955691 107297493 15095515 115463401</internalNodes>
          <leafValues>
            -5.4272437095642090e-01 2.3289583623409271e-01</leafValues></_></weakClassifiers></_>
    <!-- stage 16 -->
    <_>
      <maxWeakCount>13</maxWeakCount>
      <stageThreshold>-5.0235331058502197e-01</stageThreshold>
      <weakClassifiers>
        <_>
          <internalNodes>
            0 -1 160 -1917854360 -1434255456 -1921183744 -1249577740
            235274237 178286548 81417420 221971824</internalNodes>
          <leafValues>
            -1.5155525505542755e-01 7.0333969593048096e-01</leafValues></_>
        <_>
          <internalNodes>
            0 -1 133 1070529322 -603980865 265684763 1266617115
            -654836216 -34144612 -304873573 -859763703</internalNodes>
          <leafValues>
            -3.2306244969367981e-01 4.5396450161933899e-01</leafValues></_>
        <_>
          <internalNodes>
            0 -1 27 587396090 1364931487 -841003699 1595425103
            -505089806 -1325622853 -271100478 -572701201</internalNodes>
          <leafValues>
            -4.7888678312301636e-01 3.1102997064590454e-01</leafValues></_>
        <_>
          <internalNodes>
            0 -1 144 -1179943430 365371368 1690653683 -271253545
            -1352925477 239921855 1644762519 -855838998</internalNodes>
          <leafValues>
            -4.0249052643775940e-01 3.4203884005546570e-01</leafValues></_>
        <_>
          <internalNodes>
            0 -1 136 -1096242818 -105016857 -1461049237 -1280153743
            240854492 891408564 241020924 255330864</internalNodes>
          <leafValues>
            -5.0116020441055298e-01 2.6219150424003601e-01</leafValues></_>
        <_>
          <internalNodes>
            0 -1 15 -671139009 2119990103 612371512 404912895 -556376195
            1606344153 -35370696 -270078209</internalNodes>
          <leafValues>
            -3.1664940714836121e-01 4.3785551190376282e-01</leafValues></_>
        <_>
          <internalNodes>
            0 -1 150 1809308906 -1408356929 -273475725 -1648364655
            706277002 -1735018263 50804703 -4739877</internalNodes>
          <leafValues>
            -3.7003928422927856e-01 3.6511096358299255e-01</leafValues></_>
        <_>
          <internalNodes>
            0 -1 187 -608439639 -678168129 -468247613 -540541497
            -1196742399 -105399275 -110093551 -840074447</internalNodes>
          <leafValues>
            -3.2945373654365540e-01 3.9851778745651245e-01</leafValues></_>
        <_>
          <internalNodes>
            0 -1 176 -552863773 -488389191 -127979056 -771895361
            134847211 -1417544711 1595291059 232355518</internalNodes>
          <leafValues>
            -3.6085975170135498e-01 3.6701047420501709e-01</leafValues></_>
        <_>
          <internalNodes>
            0 -1 69 -179374178 410178559 -213547696 1375317915
            -1537768195 -296223951 675785663 1815821337</internalNodes>
          <leafValues>
            -3.9672675728797913e-01 3.2436400651931763e-01</leafValues></_>
        <_>
          <internalNodes>
            0 -1 9 487855071 2143310262 1170235387 -1622112064
            1988169983 -15712833 2132824991 1845773576</internalNodes>
          <leafValues>
            -3.9357787370681763e-01 3.2311224937438965e-01</leafValues></_>
        <_>
          <internalNodes>
            0 -1 178 121725610 -7122046 -1678417635 1542801591
            -2027338305 -612303224 488575705 329517594</internalNodes>
          <leafValues>
            -5.1444709300994873e-01 2.5364518165588379e-01</leafValues></_>
        <_>
          <internalNodes>
            0 -1 81 -1694371365 -1117922819 -1851817477 -650026953
            -1940711183 -1095262961 -1096087394 134287867</internalNodes>
          <leafValues>
            -4.1504418849945068e-01 3.0529701709747314e-01</leafValues></_></weakClassifiers></_>
    <!-- stage 17 -->
    <_>
      <maxWeakCount>13</maxWeakCount>
      <stageThreshold>-9.7678166627883911e-01</stageThreshold>
      <weakClassifiers>
        <_>
          <internalNodes>
            0 -1 151 -341250418 -68619313 1074037982 -453747468
            1325501132 50463813 88670974 16779648</internalNodes>
          <leafValues>
            -2.2537112236022949e-01 7.1101832389831543e-01</leafValues></_>
        <_>
          <internalNodes>
            0 -1 140 -900740365 -1354398875 -20046275 930955124
            1892503487 482344949 -1343398403 -1345492070</internalNodes>
          <leafValues>
            -2.3849785327911377e-01 5.7202398777008057e-01</leafValues></_>
        <_>
          <internalNodes>
            0 -1 30 -1877163894 -266952819 1561351647 530061519
            -66538015 -241137929 1049380787 2141740987</internalNodes>
          <leafValues>
            -4.8438975214958191e-01 3.2704573869705200e-01</leafValues></_>
        <_>
          <internalNodes>
            0 -1 113 531084264 179259235 289475905 -1595705293
            -412520611 -893712242 -720688323 -2139640429</internalNodes>
          <leafValues>
            -5.1198649406433105e-01 2.8733879327774048e-01</leafValues></_>
        <_>
          <internalNodes>
            0 -1 39 95393819 1436578193 -910359307 353964417 755565915
            -271956733 1250945723 -1154853749</internalNodes>
          <leafValues>
            -2.7421978116035461e-01 5.4832386970520020e-01</leafValues></_>
        <_>
          <internalNodes>
            0 -1 145 1282349563 1223263425 487979639 160175621
            -1439707222 -1467732958 -1744459107 777601948</internalNodes>
          <leafValues>
            -3.9997994899749756e-01 3.7419912219047546e-01</leafValues></_>
        <_>
          <internalNodes>
            0 -1 177 2063856635 1435979188 327578993 1515405529
            1359205297 -29668048 1267245271 -23311788</internalNodes>
          <leafValues>
            -3.1257945299148560e-01 4.3980935215950012e-01</leafValues></_>
        <_>
          <internalNodes>
            0 -1 77 -1078726821 -1220563183 -1079013617 -1512245371
            1057709907 1592592175 -1674899621 -1912893947</internalNodes>
          <leafValues>
            -3.1684795022010803e-01 4.4417145848274231e-01</leafValues></_>
        <_>
          <internalNodes>
            0 -1 166 -878201910 2017485280 -1324912380 -1386715980
            135114411 142636978 218834427 153182336</internalNodes>
          <leafValues>
            -5.4224687814712524e-01 2.5792425870895386e-01</leafValues></_>
        <_>
          <internalNodes>
            0 -1 4 -1458648326 1897028774 -1962069837 -1949674662
            -1018851728 -388685616 -81461467 -871926</internalNodes>
          <leafValues>
            -4.6085298061370850e-01 3.0409863591194153e-01</leafValues></_>
        <_>
          <internalNodes>
            0 -1 128 1437135330 -926748569 1364404996 -673104489
            -1879039829 -750349777 70287498 -1901739861</internalNodes>
          <leafValues>
            -4.4682571291923523e-01 3.2402318716049194e-01</leafValues></_>
        <_>
          <internalNodes>
            0 -1 40 -335483956 -937902032 963691397 -1422048629
            -1572822203 916496552 -477984069 1907890093</internalNodes>
          <leafValues>
            -5.7435488700866699e-01 2.5117167830467224e-01</leafValues></_>
        <_>
          <internalNodes>
            0 -1 188 1402330787 -268176921 -1141262605 -69994763
            -1628861755 -521273663 1925910928 -592972357</internalNodes>
          <leafValues>
            -3.4012031555175781e-01 4.6496349573135376e-01</leafValues></_></weakClassifiers></_>
    <!-- stage 18 -->
    <_>
      <maxWeakCount>11</maxWeakCount>
      <stageThreshold>-5.4019737243652344e-01</stageThreshold>
      <weakClassifiers>
        <_>
          <internalNodes>
            0 -1 157 320992424 262234016 -2061424848 625046868 252675983
            34411783 1143432919 72705397</internalNodes>
          <leafValues>
            -2.9420617222785950e-01 7.0638257265090942e-01</leafValues></_>
        <_>
          <internalNodes>
            0 -1 143 -882196229 -97336866 1293558983 1361858027
            -1047411297 -513425241 -910818157 -541126006</internalNodes>
          <leafValues>
            -2.2229394316673279e-01 6.0469359159469604e-01</leafValues></_>
        <_>
          <internalNodes>
            0 -1 101 -218076833 1364323331 1822875452 256868383
            -287261197 -861295347 -178151429 -352515569</internalNodes>
          <leafValues>
            -2.6926916837692261e-01 6.0606139898300171e-01</leafValues></_>
        <_>
          <internalNodes>
            0 -1 102 -1623131667 -1661634267 1069182725 -1290102997
            -882041563 -917927471 -1364498008 -4747105</internalNodes>
          <leafValues>
            -2.5417110323905945e-01 6.7893123626708984e-01</leafValues></_>
        <_>
          <internalNodes>
            0 -1 89 -708888367 -1845590567 -1982973923 626633453
            1461550963 718269834 -1429536162 -670604992</internalNodes>
          <leafValues>
            -3.9612850546836853e-01 4.6003010869026184e-01</leafValues></_>
        <_>
          <internalNodes>
            0 -1 28 -15994694 -445464111 -1788151479 394560979 169428219
            -310420135 657168527 1302223707</internalNodes>
          <leafValues>
            -3.9796024560928345e-01 4.6544936299324036e-01</leafValues></_>
        <_>
          <internalNodes>
            0 -1 159 1128845832 1468351632 1348161547 176521602
            -800468386 -1168588739 4930335 698392603</internalNodes>
          <leafValues>
            -5.6366848945617676e-01 3.1839632987976074e-01</leafValues></_>
        <_>
          <internalNodes>
            0 -1 66 -351684448 -1853112309 1628058099 1623539845
            723053513 168346251 1426063701 25794578</internalNodes>
          <leafValues>
            -6.7430710792541504e-01 2.5814047455787659e-01</leafValues></_>
        <_>
          <internalNodes>
            0 -1 169 -175899239 -1802470316 -1380351743 -709676359
            1016825226 -44749933 1034756897 -172342944</internalNodes>
          <leafValues>
            -3.4368568658828735e-01 5.4542177915573120e-01</leafValues></_>
        <_>
          <internalNodes>
            0 -1 11 -605037573 -585286759 1827401247 -658261005
            511395099 191870712 -826240991 -74953839</internalNodes>
          <leafValues>
            -2.2722929716110229e-01 7.6595479249954224e-01</leafValues></_>
        <_>
          <internalNodes>
            0 -1 79 -1336504304 603253011 -184414883 -943617525
            436521685 -761786440 252217480 -84396606</internalNodes>
          <leafValues>
            -4.5362162590026855e-01 4.1775768995285034e-01</leafValues></_></weakClassifiers></_>
    <!-- stage 19 -->
    <_>
      <maxWeakCount>9</maxWeakCount>
      <stageThreshold>-4.7953963279724121e-01</stageThreshold>
      <weakClassifiers>
        <_>
          <internalNodes>
            0 -1 167 -2115631336 1926372627 -1778211067 -1377827293
            -1073477332 -919578880 1090813658 822411267</internalNodes>
          <leafValues>
            -1.3251784257590771e-02 7.8884589672088623e-01</leafValues></_>
        <_>
          <internalNodes>
            0 -1 58 -431621711 1351607621 -1040159577 178312525
            -2137373173 -1837006560 134758794 -1937194853</internalNodes>
          <leafValues>
            -2.7810370922088623e-01 6.7381834983825684e-01</leafValues></_>
        <_>
          <internalNodes>
            0 -1 137 -2003173949 -1180584350 -1775762171 -313653979
            -2147219665 1988207617 -1003747637 1688921794</internalNodes>
          <leafValues>
            -3.7285566329956055e-01 6.1222815513610840e-01</leafValues></_>
        <_>
          <internalNodes>
            0 -1 183 -2146725383 -1660683679 362082869 386117760
            814399679 -83185967 402686661 -1806977015</internalNodes>
          <leafValues>
            -3.9158844947814941e-01 6.0139387845993042e-01</leafValues></_>
        <_>
          <internalNodes>
            0 -1 117 -1004409703 -1199469864 -2002762959 -861404090
            -1735356774 -1659483055 -846162158 -708254127</internalNodes>
          <leafValues>
            -3.7205493450164795e-01 6.3650155067443848e-01</leafValues></_>
        <_>
          <internalNodes>
            0 -1 153 1812132520 -197112412 268730373 -1852239871
            -796867363 -1610252223 -2013265838 -375254949</internalNodes>
          <leafValues>
            -5.1825857162475586e-01 4.6089917421340942e-01</leafValues></_>
        <_>
          <internalNodes>
            0 -1 74 134840595 51874307 5472842 420579666 268515383
            578884649 1765875773 540051601</internalNodes>
          <leafValues>
            -5.2721130847930908e-01 4.7072011232376099e-01</leafValues></_>
        <_>
          <internalNodes>
            0 -1 63 -620121847 -1838566255 -824131490 -1049396108
            1082714794 -238261967 -1522134849 -646689057</internalNodes>
          <leafValues>
            -4.3144229054450989e-01 5.9151536226272583e-01</leafValues></_>
        <_>
          <internalNodes>
            0 -1 147 -608347933 -251892701 -730380845 -2135075662
            -1530041942 574738568 -2055372293 -390268673</internalNodes>
          <leafValues>
            -3.2672402262687683e-01 7.1803700923919678e-01</leafValues></_></weakClassifiers></_></stages>
  <features>
    <_>
      <rect>
        0 1 3 6</rect></_>
    <_>
      <rect>
        0 2 2 4</rect></_>
    <_>
      <rect>
        0 2 2 6</rect></_>
    <_>
      <rect>
        0 3 3 4</rect></_>
    <_>
      <rect>
        0 5 3 3</rect></_>
    <_>
      <rect>
        0 5 3 5</rect></_>
    <_>
      <rect>
        0 6 3 4</rect></_>
    <_>
      <rect>
        0 7 3 4</rect></_>
    <_>
      <rect>
        0 11 6 3</rect></_>
    <_>
      <rect>
        0 14 5 2</rect></_>
    <_>
      <rect>
        1 2 6 6</rect></_>
    <_>
      <rect>
        1 3 2 4</rect></_>
    <_>
      <rect>
        1 7 1 2</rect></_>
    <_>
      <rect>
        1 8 1 2</rect></_>
    <_>
      <rect>
        1 9 1 2</rect></_>
    <_>
      <rect>
        1 11 1 3</rect></_>
    <_>
      <rect>
        2 1 5 4</rect></_>
    <_>
      <rect>
        2 3 5 3</rect></_>
    <_>
      <rect>
        2 6 1 2</rect></_>
    <_>
      <rect>
        2 7 1 2</rect></_>
    <_>
      <rect>
        2 7 1 3</rect></_>
    <_>
      <rect>
        2 8 1 1</rect></_>
    <_>
      <rect>
        2 8 1 2</rect></_>
    <_>
      <rect>
        2 9 1 1</rect></_>
    <_>
      <rect>
        2 10 1 1</rect></_>
    <_>
      <rect>
        2 11 5 3</rect></_>
    <_>
      <rect>
        3 5 2 2</rect></_>
    <_>
      <rect>
        3 5 2 3</rect></_>
    <_>
      <rect>
        3 6 1 2</rect></_>
    <_>
      <rect>
        3 6 2 3</rect></_>
    <_>
      <rect>
        3 6 3 2</rect></_>
    <_>
      <rect>
        3 7 1 1</rect></_>
    <_>
      <rect>
        3 7 1 2</rect></_>
    <_>
      <rect>
        3 8 1 1</rect></_>
    <_>
      <rect>
        3 8 1 2</rect></_>
    <_>
      <rect>
        3 9 1 1</rect></_>
    <_>
      <rect>
        3 10 1 1</rect></_>
    <_>
      <rect>
        3 11 1 1</rect></_>
    <_>
      <rect>
        3 11 5 2</rect></_>
    <_>
      <rect>
        3 13 5 1</rect></_>
    <_>
      <rect>
        4 2 5 6</rect></_>
    <_>
      <rect>
        4 3 2 4</rect></_>
    <_>
      <rect>
        4 3 3 3</rect></_>
    <_>
      <rect>
        4 4 2 2</rect></_>
    <_>
      <rect>
        4 4 3 3</rect></_>
    <_>
      <rect>
        4 6 1 1</rect></_>
    <_>
      <rect>
        4 6 1 2</rect></_>
    <_>
      <rect>
        4 7 1 1</rect></_>
    <_>
      <rect>
        4 7 1 2</rect></_>
    <_>
      <rect>
        4 8 1 1</rect></_>
    <_>
      <rect>
        4 8 2 2</rect></_>
    <_>
      <rect>
        4 8 2 3</rect></_>
    <_>
      <rect>
        4 9 1 1</rect></_>
    <_>
      <rect>
        4 10 1 1</rect></_>
    <_>
      <rect>
        4 11 1 1</rect></_>
    <_>
      <rect>
        5 3 2 2</rect></_>
    <_>
      <rect>
        5 6 1 1</rect></_>
    <_>
      <rect>
        5 6 1 2</rect></_>
    <_>
      <rect>
        5 6 1 3</rect></_>
    <_>
      <rect>
        5 6 3 2</rect></_>
    <_>
      <rect>
        5 7 1 1</rect></_>
    <_>
      <rect>
        5 7 1 2</rect></_>
    <_>
      <rect>
        5 7 1 3</rect></_>
    <_>
      <rect>
        5 7 2 2</rect></_>
    <_>
      <rect>
        5 8 1 1</rect></_>
    <_>
      <rect>
        5 8 1 2</rect></_>
    <_>
      <rect>
        5 9 1 1</rect></_>
    <_>
      <rect>
        5 9 2 2</rect></_>
    <_>
      <rect>
        5 10 1 1</rect></_>
    <_>
      <rect>
        5 10 1 2</rect></_>
    <_>
      <rect>
        5 11 4 2</rect></_>
    <_>
      <rect>
        5 11 5 3</rect></_>
    <_>
      <rect>
        5 12 1 2</rect></_>
    <_>
      <rect>
        5 13 1 1</rect></_>
    <_>
      <rect>
        6 0 2 2</rect></_>
    <_>
      <rect>
        6 0 4 5</rect></_>
    <_>
      <rect>
        6 3 2 4</rect></_>
    <_>
      <rect>
        6 4 1 1</rect></_>
    <_>
      <rect>
        6 5 1 1</rect></_>
    <_>
      <rect>
        6 5 2 2</rect></_>
    <_>
      <rect>
        6 6 1 1</rect></_>
    <_>
      <rect>
        6 6 1 2</rect></_>
    <_>
      <rect>
        6 6 2 2</rect></_>
    <_>
      <rect>
        6 6 2 3</rect></_>
    <_>
      <rect>
        6 7 1 2</rect></_>
    <_>
      <rect>
        6 8 2 2</rect></_>
    <_>
      <rect>
        6 9 1 1</rect></_>
    <_>
      <rect>
        6 10 2 2</rect></_>
    <_>
      <rect>
        6 11 2 1</rect></_>
    <_>
      <rect>
        7 5 1 1</rect></_>
    <_>
      <rect>
        7 5 2 2</rect></_>
    <_>
      <rect>
        7 6 1 2</rect></_>
    <_>
      <rect>
        7 7 1 2</rect></_>
    <_>
      <rect>
        7 8 1 1</rect></_>
    <_>
      <rect>
        7 8 2 2</rect></_>
    <_>
      <rect>
        7 9 1 2</rect></_>
    <_>
      <rect>
        7 9 2 2</rect></_>
    <_>
      <rect>
        7 10 1 2</rect></_>
    <_>
      <rect>
        7 10 2 1</rect></_>
    <_>
      <rect>
        7 10 2 2</rect></_>
    <_>
      <rect>
        7 11 2 1</rect></_>
    <_>
      <rect>
        7 12 3 2</rect></_>
    <_>
      <rect>
        7 14 1 1</rect></_>
    <_>
      <rect>
        8 4 2 3</rect></_>
    <_>
      <rect>
        8 5 2 3</rect></_>
    <_>
      <rect>
        8 7 1 1</rect></_>
    <_>
      <rect>
        8 8 2 1</rect></_>
    <_>
      <rect>
        8 8 2 2</rect></_>
    <_>
      <rect>
        8 8 2 3</rect></_>
    <_>
      <rect>
        8 9 1 2</rect></_>
    <_>
      <rect>
        8 9 2 2</rect></_>
    <_>
      <rect>
        8 10 1 1</rect></_>
    <_>
      <rect>
        8 10 2 2</rect></_>
    <_>
      <rect>
        8 11 1 1</rect></_>
    <_>
      <rect>
        8 11 2 1</rect></_>
    <_>
      <rect>
        8 11 3 3</rect></_>
    <_>
      <rect>
        8 11 4 3</rect></_>
    <_>
      <rect>
        9 7 1 1</rect></_>
    <_>
      <rect>
        9 9 1 1</rect></_>
    <_>
      <rect>
        9 9 2 1</rect></_>
    <_>
      <rect>
        9 9 2 2</rect></_>
    <_>
      <rect>
        9 10 1 1</rect></_>
    <_>
      <rect>
        9 11 1 1</rect></_>
    <_>
      <rect>
        9 12 2 1</rect></_>
    <_>
      <rect>
        9 14 3 1</rect></_>
    <_>
      <rect>
        10 6 3 2</rect></_>
    <_>
      <rect>
        10 8 1 2</rect></_>
    <_>
      <rect>
        10 9 1 1</rect></_>
    <_>
      <rect>
        10 9 1 2</rect></_>
    <_>
      <rect>
        10 9 2 2</rect></_>
    <_>
      <rect>
        10 10 1 1</rect></_>
    <_>
      <rect>
        10 11 1 1</rect></_>
    <_>
      <rect>
        10 11 2 1</rect></_>
    <_>
      <rect>
        10 11 3 2</rect></_>
    <_>
      <rect>
        10 12 2 1</rect></_>
    <_>
      <rect>
        10 13 1 1</rect></_>
    <_>
      <rect>
        10 13 2 1</rect></_>
    <_>
      <rect>
        11 4 2 2</rect></_>
    <_>
      <rect>
        11 5 3 5</rect></_>
    <_>
      <rect>
        11 6 1 2</rect></_>
    <_>
      <rect>
        11 6 2 2</rect></_>
    <_>
      <rect>
        11 7 1 2</rect></_>
    <_>
      <rect>
        11 7 2 2</rect></_>
    <_>
      <rect>
        11 7 2 3</rect></_>
    <_>
      <rect>
        11 8 1 1</rect></_>
    <_>
      <rect>
        11 8 1 2</rect></_>
    <_>
      <rect>
        11 8 3 4</rect></_>
    <_>
      <rect>
        11 9 1 1</rect></_>
    <_>
      <rect>
        11 9 1 2</rect></_>
    <_>
      <rect>
        11 9 2 2</rect></_>
    <_>
      <rect>
        11 10 1 1</rect></_>
    <_>
      <rect>
        11 12 2 1</rect></_>
    <_>
      <rect>
        12 7 1 1</rect></_>
    <_>
      <rect>
        12 7 2 3</rect></_>
    <_>
      <rect>
        12 8 1 1</rect></_>
    <_>
      <rect>
        12 8 1 2</rect></_>
    <_>
      <rect>
        12 8 2 2</rect></_>
    <_>
      <rect>
        12 9 1 1</rect></_>
    <_>
      <rect>
        12 10 1 1</rect></_>
    <_>
      <rect>
        12 10 2 2</rect></_>
    <_>
      <rect>
        12 11 1 1</rect></_>
    <_>
      <rect>
        12 15 1 1</rect></_>
    <_>
      <rect>
        13 7 1 2</rect></_>
    <_>
      <rect>
        13 9 1 1</rect></_>
    <_>
      <rect>
        13 10 1 1</rect></_>
    <_>
      <rect>
        13 11 1 1</rect></_>
    <_>
      <rect>
        13 12 1 1</rect></_>
    <_>
      <rect>
        13 12 1 2</rect></_>
    <_>
      <rect>
        14 4 2 5</rect></_>
    <_>
      <rect>
        14 5 2 2</rect></_>
    <_>
      <rect>
        14 5 2 5</rect></_>
    <_>
      <rect>
        14 6 2 3</rect></_>
    <_>
      <rect>
        14 9 1 1</rect></_>
    <_>
      <rect>
        14 10 1 1</rect></_>
    <_>
      <rect>
        14 10 2 2</rect></_>
    <_>
      <rect>
        14 11 1 1</rect></_>
    <_>
      <rect>
        14 12 1 1</rect></_>
    <_>
      <rect>
        15 7 1 2</rect></_>
    <_>
      <rect>
        15 8 1 2</rect></_>
    <_>
      <rect>
        15 10 1 1</rect></_>
    <_>
      <rect>
        15 10 1 2</rect></_>
    <_>
      <rect>
        15 11 1 1</rect></_>
    <_>
      <rect>
        15 12 1 1</rect></_>
    <_>
      <rect>
        16 8 1 2</rect></_>
    <_>
      <rect>
        16 9 1 2</rect></_>
    <_>
      <rect>
        16 11 1 1</rect></_>
    <_>
      <rect>
        17 7 1 2</rect></_>
    <_>
      <rect>
        17 8 1 2</rect></_>
    <_>
      <rect>
        17 10 1 1</rect></_></features></cascade>
</opencv_storage>
